{
  "bestLoss": 0.0000024672956126164416,
  "model": {
    "type": "RNNModel",
    "architecture": {
      "inputSize": 1,
      "hiddenSize": 20,
      "outputSize": 1
    },
    "rnnLayer": {
      "inputWeights": [
        [
          -0.0006628961989565762
        ],
        [
          0.32026521712411793
        ],
        [
          -0.0015881245573558837
        ],
        [
          -0.0017263354287138173
        ],
        [
          0.0020262063116338893
        ],
        [
          0.3568335731986985
        ],
        [
          0.025541980015283707
        ],
        [
          0.33246484234003676
        ],
        [
          0.00039171786056620784
        ],
        [
          -0.19518901353333867
        ],
        [
          0.2628329541871993
        ],
        [
          0.3562328608753078
        ],
        [
          -0.0032847919614222595
        ],
        [
          0.0009705046633958916
        ],
        [
          0.0026605748887409447
        ],
        [
          0.13491041568704412
        ],
        [
          0.33984434755862614
        ],
        [
          -0.0011904003654515463
        ],
        [
          0.2443383807287873
        ],
        [
          -0.0008977689308196053
        ]
      ],
      "recurrentWeights": [
        [
          -1.2054353393079174,
          0.058463569062684254,
          0.05467291683389835,
          0.022694914029040763,
          0.06594713490772032,
          0.02559649493476779,
          -0.02101858736335996,
          -0.03732291297020692,
          -0.01962090252320109,
          0.013356804006239982,
          -0.11066857836138601,
          0.08545794987980183,
          -0.021502919247732614,
          -0.0037088504131745402,
          0.046775522391391225,
          0.12727530433937181,
          -0.033378963109153025,
          0.05580234620313857,
          -0.07667515963130045,
          0.013314086969086715
        ],
        [
          0.005647281768244146,
          0.6346917895009097,
          0.04134843287139584,
          0.040647165320029766,
          -0.008793832860324879,
          -0.09899250930128889,
          0.07106744548711633,
          0.020542859344760623,
          0.04477035161741349,
          0.05430608492298229,
          0.13632409908160578,
          -0.002407425326238033,
          0.02278753136011398,
          0.00998763457729552,
          -0.006772458858855336,
          -0.11989705903147758,
          -0.09300122716847392,
          0.04828661425350197,
          -0.20455573777255362,
          0.024445069137360213
        ],
        [
          -0.055445610829743114,
          0.08427957125527116,
          -1.2323874560637667,
          -0.016557633394214975,
          -0.16060887020117243,
          0.04334361942262521,
          -0.04875056310626622,
          -0.030374670432574084,
          -0.04847239239314975,
          -0.07011652690991994,
          -0.10132477243970497,
          0.10059067034035735,
          -0.001355265278588986,
          -0.05173402982343979,
          0.0017532180730763884,
          -0.043537034778664815,
          -0.012469531017786264,
          -0.021281584650896468,
          -0.16618573505706172,
          0.027905440282401987
        ],
        [
          -0.011046936109862578,
          0.09659866847347576,
          -0.024166791351686628,
          -1.230333141417274,
          -0.1615781211534013,
          0.01205715000797176,
          -0.04212638126478625,
          -0.10837454568209545,
          -0.01283645709630777,
          -0.07671221350173373,
          -0.10329061027544356,
          0.16661741375756053,
          -0.03774169957072381,
          -0.019029577759365996,
          0.03948419281309302,
          -0.043086246047206296,
          -0.012297235319275306,
          -0.005554548756870161,
          -0.13603728787828864,
          -0.01141338040484599
        ],
        [
          -0.22870999941265902,
          0.011127033081426017,
          0.326485647196019,
          0.20371693953325953,
          -0.25413805824814767,
          -0.05793836592214851,
          0.1475225316824402,
          0.09289462764961552,
          -0.2426258349476697,
          0.051999429420429316,
          -0.2039938554005647,
          0.006409411597901656,
          0.26485806661036754,
          -0.18791738318974777,
          -0.29343104230989797,
          0.1660029582965146,
          0.03767492205062825,
          0.16199378951987337,
          -0.0006520520058968771,
          0.45488477977328134
        ],
        [
          -0.0630256529608964,
          -0.11886571131207611,
          0.007286862278288459,
          -0.046615867276989055,
          0.042173858429722585,
          0.1228517862589086,
          -0.14280166811793524,
          -0.08449973530182195,
          -0.02898502313244501,
          -0.14439500713997985,
          -0.2508636207819315,
          0.10244626642941088,
          -0.029201474243258002,
          0.01496857997784774,
          -0.022950624230277095,
          -0.08847121051537293,
          0.07740117981227129,
          -0.04595862501498043,
          -0.01944676299927247,
          0.0420974492678791
        ],
        [
          0.009936445169614267,
          0.18937463285544637,
          0.07137986854935291,
          0.06739262111739316,
          0.0015758188902546017,
          0.10403181022040817,
          -0.34284527903375933,
          -0.37591233873721563,
          -0.022447878215474216,
          0.07786389673983875,
          -0.25080368110608875,
          0.149865286916398,
          0.03963034503927933,
          0.024271072365354942,
          -0.03877596903410871,
          -0.12219778973430045,
          -0.05766152340970532,
          0.046719595434046364,
          -0.007810569428978647,
          0.03322660351409877
        ],
        [
          0.06541568000649109,
          0.037254917859451404,
          0.017061050489450797,
          0.006989266886526947,
          0.01841996547774681,
          0.0350168274754058,
          0.12708208436893598,
          -0.06997364133238022,
          -0.03676484859194681,
          -0.03087912425047004,
          -0.04018028775964322,
          0.023540582920903965,
          0.011295200901669264,
          0.04111629624690938,
          -0.028740201180253045,
          -0.04375791859434325,
          -0.015138509213665038,
          -0.024127479592748555,
          -0.1263564066006162,
          0.015676171189960328
        ],
        [
          -0.0296977172207613,
          0.11141647477460455,
          0.04090486511968516,
          0.011016280596539087,
          0.07911151599271059,
          0.09212045764780769,
          0.011532010088677528,
          -0.09864105992329016,
          -1.19732391112416,
          -0.1051067504705158,
          -0.15473751687728327,
          0.07728940005404601,
          -0.04868091853862012,
          -0.010009711432576058,
          -0.03105844167714687,
          -0.07367138165749482,
          -0.025816760151483827,
          -0.0438531137179329,
          -0.0976291443032026,
          0.012882339391623338
        ],
        [
          -0.10982348973140799,
          0.26478594645726167,
          -0.14507480013288968,
          -0.17999979941323832,
          0.055273311784298874,
          0.2522045823947923,
          -1.0359387332246672,
          -0.044656531923775195,
          -0.10979506018075934,
          -0.33486324810801643,
          0.027502527464839437,
          0.1540865800404922,
          -0.12608459330921326,
          -0.06604267584220924,
          0.04005728835300055,
          -0.20171297006466535,
          0.05032413971268277,
          -0.1947674770720442,
          0.053871115502612615,
          -0.06588942491817584
        ],
        [
          -0.006526420357207342,
          0.24628776954507975,
          -0.08438529882653412,
          -0.07502883540047564,
          -0.001538223401630974,
          -0.03832535237307461,
          0.029374828043543032,
          -0.10854135900756501,
          -0.07545920797766711,
          -0.03976737315040559,
          -0.027533310205805586,
          -0.05105794231485805,
          -0.04851024829696229,
          0.011826985455377389,
          0.05118762534063304,
          -0.08223537767882141,
          -0.10992386334118984,
          -0.06970003092918467,
          -0.201136221280958,
          -0.0491034222971921
        ],
        [
          -0.04724656375522586,
          -0.11323024841749146,
          -0.028826638233782984,
          0.002427344131824356,
          -0.05689523711584017,
          0.13068926329348868,
          -0.13047520026612802,
          -0.09717814903100837,
          -0.03163308541238275,
          -0.13499457864089423,
          -0.23795301281936793,
          0.08670999841570386,
          -0.026876513208927977,
          -0.07774374846982444,
          0.024639055636912353,
          -0.11429069426734625,
          0.04887433427177129,
          -0.04762045536576948,
          -0.004461569159958576,
          -0.021390584001437785
        ],
        [
          0.014417668393069627,
          0.06664132856757762,
          -0.05083290024587568,
          -0.02328252354703097,
          -0.24552132898543508,
          0.046525263461836934,
          -0.07152131676647801,
          -0.061329294979806104,
          0.09792558427864108,
          -0.04977590185746313,
          -0.08062441746348209,
          0.11337718143191776,
          -1.2356193237148885,
          0.017727030812871976,
          0.025915632326604616,
          0.0017450370319980586,
          -0.04863248334913291,
          -0.010617292004585223,
          -0.10369567393323297,
          -0.05307792543013939
        ],
        [
          -0.019914821224982615,
          0.04765774799574998,
          0.052787603866146886,
          0.037519405952667624,
          0.12546783863295866,
          -0.005802653045783122,
          -0.011254039915438227,
          -0.009461013612540972,
          -0.04598134085388468,
          0.01240945210412619,
          -0.08711404002070482,
          0.06813391787394919,
          -0.007067484897545957,
          -1.2227338653099062,
          0.03557827005289366,
          0.09695686379038006,
          0.0010457449017276577,
          0.0417738712994778,
          -0.08613571442546461,
          0.044825510822525484
        ],
        [
          -0.06777149126691821,
          0.018986007458135314,
          0.055132498030580006,
          0.0007074129876674299,
          0.22874074161388894,
          0.00041270074974919464,
          0.05032930919505184,
          0.024388660794003297,
          -0.010825439907144343,
          0.003632416431338952,
          -0.04016557152793762,
          -0.001598838431913968,
          0.00043866426223757965,
          -0.06201165467474372,
          -1.225121058548692,
          -0.008873460363932254,
          0.0033116647721607878,
          0.03257889952273568,
          -0.017721085244342218,
          0.07641980195607605
        ],
        [
          -0.09490688842371493,
          0.02386613466058779,
          0.10418072129529089,
          0.062188727055459025,
          -0.053845659066368,
          -0.021162921520602878,
          0.24873885192768017,
          -0.0802187043180904,
          0.0661296906119055,
          -0.12701698145171483,
          -0.1596264995582707,
          0.011136782374486402,
          0.04948979102650034,
          -0.10769404146766029,
          -0.0463070861546433,
          -0.14500071163336775,
          -0.09717712339360075,
          0.08712848206072492,
          -0.13935152647479895,
          0.13066800720622754
        ],
        [
          0.046509405523549256,
          -0.10994988786310148,
          -0.06704367637465593,
          -0.06169631916633671,
          0.028887147150865194,
          0.09056132322149645,
          0.06964339025051293,
          -0.046216732524891585,
          -0.006045310579040006,
          -0.06498479592994759,
          -0.13303473559919293,
          0.12095092054087861,
          0.0002497832633499862,
          0.00578602779574826,
          0.03234448739189293,
          -0.09044093695573675,
          0.03888567505820518,
          0.017626244341033406,
          -0.029995434255053462,
          -0.05158416046308369
        ],
        [
          -0.06104440656612524,
          0.10083070845034542,
          -0.0019041973622316083,
          0.000016872422831778756,
          -0.08490537496573712,
          0.06957753464655178,
          -0.03283133961094066,
          -0.06687352124550205,
          0.01879384567443124,
          -0.0769219120505049,
          -0.1296519900953655,
          0.11347740104365418,
          -0.02408958659443659,
          -0.04334581709159718,
          0.007129639759563525,
          -0.029724138279726267,
          -0.04302657412830073,
          -1.2228429093291822,
          -0.13834596693860027,
          0.028319287782858166
        ],
        [
          0.10990597535936454,
          -0.01880295240685957,
          0.10561217953854442,
          0.1788003253396134,
          -0.03395627567259803,
          0.05622219789765799,
          0.20178250040188095,
          -0.029586301711916594,
          0.14839877506754376,
          -0.07652134291929355,
          -0.10138783962884368,
          0.1352643305670003,
          0.08468345538726224,
          0.10292291620530332,
          -0.016162829450991557,
          -0.05830090634571698,
          0.03201635051485961,
          0.1496573121393796,
          -0.05495365224031291,
          -0.026737859487760075
        ],
        [
          -0.042485915236813755,
          0.03676604603729769,
          -0.04411997844940719,
          -0.030702085280748095,
          -0.18511780673352138,
          0.04180150577313863,
          -0.044945770521205866,
          -0.012885998795383066,
          0.02024705297974569,
          -0.07734343091175493,
          -0.0034592177732203954,
          0.03990412590475282,
          0.00021911672530409296,
          -0.019394388858421933,
          -0.018868764669172564,
          -0.12267886049227329,
          -0.030588286208085763,
          -0.04938295871362202,
          -0.07846948766250633,
          -1.2144989438757825
        ]
      ],
      "biases": [
        0.002074855614895118,
        -0.2938378726454331,
        0.0006867685682856396,
        0.0011432813336551926,
        0.002530666064475194,
        -0.13111402856879156,
        -0.010091714777934224,
        -0.20233430839435024,
        -0.0004992140115424685,
        0.13108824013499115,
        -0.1455308455321583,
        -0.15822677723091963,
        0.0024198505749718126,
        0.0006980685417763935,
        -0.0027469635821005525,
        -0.0879738156480678,
        -0.16118639214360636,
        0.0007125913311485614,
        -0.1670944863013147,
        0.000028480563244633244
      ]
    },
    "denseLayer": {
      "weights": [
        [
          -0.0004838565884076776,
          0.500707498576544,
          -0.0015593105974548733,
          -0.0011124039741961676,
          0.0012220581053577419,
          0.5100596701167804,
          -0.00800638952151202,
          0.4412918591030331,
          -0.0007749394690077241,
          0.15180391821624256,
          0.30475634079560676,
          0.4846238903832199,
          -0.00012954792242809196,
          -0.0008925666131473711,
          -0.00008170305959024542,
          0.24093330487120262,
          0.5098200985664451,
          -0.0014969265742685713,
          0.3697090214951454,
          -0.0012896390508375373
        ]
      ],
      "biases": [
        0.6640448545782781
      ]
    }
  }
}